0,1,2,3,4,5,6,7,8,9
1.2300583006460675,-0.6792317927519416,0.3053131371248245,-1.0231417338156468,1.1024598248616475,0.7251338377814228,0.3127124217044413,0.3793138311994697,-1.2773962641458005,-1.0586276828305234
0.7097002962381963,0.19008314569248638,0.18801830324597732,0.15272250912588906,0.5328233339960949,0.3404143567046055,0.49318194761331513,0.2034440578391513,0.052137284072461855,0.16735436007901675
-1.7900489670554307,-2.0101384047446356,1.9312246405196998,1.3290957493813165,-1.7917600783743879,0.057454613575875106,-2.7588531025009626,-4.491039957935414,-1.0691509498716862,2.2903716827386145
0.004352352212725252,-0.1210552961015863,0.3204993841643689,0.17844358924733889,0.8964822651521527,0.87180822810231,0.44509402617392346,-0.4987799705677259,0.1543727377131664,0.41743932451274196
-8.25366818478508,0.43501157236956467,1.5565656905569947,10.980112647860375,-2.2699982473810154,-4.822361251523212,-9.832269588697828,-4.0739180343067645,-0.6009036506186143,-1.9704932392496781
1.0098579809599963,0.1327774944709012,-0.4298755279421772,0.5626767186506185,-0.12362765051437984,0.7539498784217966,0.48012758936816197,-0.3193356016474982,0.18597355201994584,0.016223411992695107
-0.01010271122779142,-0.30190951689429607,0.6486105425476374,-0.33430272136650624,0.40611754635659575,0.3247020555777321,0.4186811308490281,-0.8000566284104113,0.0445896032553322,0.8850791961434261
1.0904487381683594,-0.42674970529214346,-0.37820126631443207,0.8086211696587283,0.45853422948052874,0.18103216483204052,-0.07651711497371262,-0.7379995033439123,0.5471646458428796,0.14020152946937156
0.4339698162543709,-0.1140844530006329,-0.2693421280200672,-0.011583247800727834,0.7845617619077917,0.9965700394260385,0.2928442034082631,-0.7776229522387019,0.16409305975585206,0.5902313861805739
0.6013816100034413,-0.7156333722041579,0.809909375935173,-0.6882951321628202,0.22906583706053207,0.747041750174291,-0.0025588321264206743,-1.2325274961177621,0.32318151089036135,0.600435683441493
-0.27784801938730613,-0.8579663440615152,-1.4669295481534148,-0.5599162920522829,2.0909602337884534,-0.42626868932021145,-1.2594458458940325,-1.7668909667661994,-0.10636579708344106,0.21970281407439168
0.22992296132630252,-0.20069951430185515,0.9685820358110047,-0.36054888506331645,0.3503641475436686,0.5379530680631737,-0.3724721701556225,-1.6993800285708156,0.477167537679825,-0.6793593965856196
0.8581119782745196,-0.3340107366466922,-0.33100312083593236,0.1728941566001881,0.6865501418739742,0.18824731775400824,0.30906620942909185,-1.0814570713638516,0.23683509752823623,0.4946681694678526
0.1535340870791901,-0.3727487803665644,0.49201716505492993,0.14145537011930073,-0.021847690997888858,0.23207257592499897,0.7803893007911442,-1.3735411486925941,-0.051239714350553765,0.9989403438269144
0.7294003344115051,-0.6084521634671969,0.7347043066077878,-0.4329980822033963,0.3583271994229532,0.3769207815860326,0.42586241964759725,-1.1402933263965818,0.6258261240907755,0.6012328483080005
0.5327648325250424,-0.7039005559897941,0.44675827961136283,-0.7956828080387063,-0.0030888889799551207,0.17934551336749346,0.8005601374026593,-1.2249708887707484,0.09126227339213369,0.6765584268115977
-0.08144465282389829,-0.5539281823697804,0.9080388341015033,-0.39915759988183985,0.7541452228619056,0.023490757490185307,0.42874513359019994,-1.1947090717937487,0.16332357699065594,0.12938058169861508
-0.7157406234695094,2.5451893333956077,-3.4141987713296613,1.0769348821326048,-0.6621098329149551,0.012252042057480622,-2.4345390902375836,-0.9120370119880397,0.8148814970109873,-0.49500425522410363
-0.1484009729056322,0.13774318557523788,-0.004137817129650435,0.36272442501457286,0.33244137769029664,0.1277559597030998,0.2695920796369823,-0.48764401019859166,0.7357797120857159,0.7405163265877325
0.045902473393555514,-0.5120091289348145,0.32945392896357417,-0.34612183216838494,0.4602210023355882,0.7975812931924204,0.7090076151674907,-1.0969920715873207,0.7374704916638711,0.4773274030704586
0.4859668753561228,0.2837945220094327,0.7257139577033938,0.09672334417266902,0.11866345650796832,0.7981480899780072,0.5171174171771085,0.01892512874060139,0.6525142509615083,0.7707025367884707
-5.570248451892745,-4.631351483177296,5.117751622164144,-0.08503935944828785,-2.432431668482322,-0.9392285410505796,-1.9256725996782578,-7.24015839391414,-10.916833432592885,0.3776798438210502
0.9495928640207357,0.22137447453982137,0.2235307270031221,-0.32028364381280827,0.271513181158816,0.3093703213220534,0.28627586754901974,-0.20506369476477695,-0.34387526446614186,0.6848336875762905
-3.584190690690337,17.839153888151355,-11.377317049846647,-12.903704826712952,5.611913990327724,-2.8491513072582264,-9.168736579740425,2.469543804422104,-5.227801013615576,4.565489453017113
-0.3026107711153885,-0.568312302816357,0.21072343608764993,0.46885228486269526,0.25071106374983226,0.7006920624273894,-0.1428972489123093,-1.8581463958652804,0.5485571327828852,0.03689953117898812
-0.6701635805101468,-0.5884848549985761,-0.5624825126528559,0.02310841797721259,0.6066251812471489,0.6812278852329965,-0.5999184967312393,-1.8002551093329486,0.6687222666245383,0.45836102986859667
4.0458749101910705,-1.8410375471901625,0.3107299509074779,-3.286560831283217,0.4268952797452658,-1.8938611384303752,-0.6384053278493111,-0.0793337272570692,0.4158543673514325,-0.1921280397787807
-0.42083520571744254,0.2311247719964397,0.5162986612683719,-0.3830634272601382,0.03961490512803454,0.20021820586807507,-0.33017047665191235,-0.8173374525412077,0.03779059106715608,0.739017784649007
0.22909039766018627,0.13799599380134256,-0.5853936541276588,0.0926793831701563,0.11802343901716025,-0.0050068777183271945,0.8796885799718034,-1.1539215208327966,0.5058612647177371,0.2288890715800468
-0.479098253737746,-0.5142071918934776,-0.16912804845833873,-0.4251925825190625,1.0485203622918795,0.5767067255345271,0.14103326091981316,-1.7152204202334291,0.5440637941456913,0.34787098844579933
0.3498157523835213,0.2828119157633554,0.1561086677716683,0.26366843110362487,0.18179925697778423,0.5646892538638858,0.3469451881537704,0.30147634305218873,0.06741889389125905,0.7302793828330161
0.38020223872293396,-0.7302461253986834,-0.27691337604009486,-0.6405204146217075,0.7869971988736236,0.605468025272198,0.7101073709022208,-1.7145125645807537,0.6394769883728515,0.38981045626086036
0.2020462149361452,-0.6642527073389282,-0.27020255139372695,-0.6764644034042803,0.04898090685872085,0.608648091796546,0.5352563839370874,-1.8543056760123438,0.7772584669640742,0.5289410365482029
-4.022459433432101,-0.5562085860515906,-2.3707335643527596,6.553966893177014,-2.797394515275079,-7.899573828287855,-10.212911385297781,0.7541146590974018,3.4507970865175785,-2.551693662601891
0.919290134426305,0.2655296969284196,-0.01660890470673232,-0.14554571507421585,0.3331267313078105,0.21144003458996602,0.8706751879946004,-0.14602536461868726,0.5085385905387123,-0.06310432015300388
-0.2505351171702064,-0.776541040561128,0.020937267236247878,-0.4357199379267297,0.08422059734022269,0.9335564625959405,0.007472770129651154,-1.90627418429854,0.4889346245533362,0.483966310973543
-0.1149574762229888,0.1077767476532131,0.5602030015337361,0.7471271188394126,-0.007988337598042891,0.5260582552694386,0.24110106132745787,-1.1142694999178975,0.6579559583210511,0.4961550975158605
-0.3022573018356274,-0.055070512393790974,0.6895028568503351,-0.29181006727557046,1.0170548031306295,0.18991699188218852,0.31421064957398304,-0.7157136060733024,0.6765870952331514,0.5695933245266706
-0.06915551329730167,0.3385996381290719,0.8902596125348338,0.020696812561974125,0.08115052771888658,1.020404646726524,0.022787868159064865,-0.2085597107145674,0.2579705778251155,0.37788736229925757
-0.2543858340293332,0.17067811183078938,0.46966154185264747,0.29288191321981877,0.8886519911925461,0.47546868931554626,0.5428138405482691,-0.20082968012732005,0.4741853959628817,0.9469956140763172
0.6229168071639567,0.0634749959188663,0.9454665193630379,0.36570999607111226,0.6710845343855741,0.9678478513421145,0.8928086874691116,-0.192063426774856,0.49360158974722157,0.5302267238652998
0.30841486046857325,-0.0837625019428678,0.7328987397751316,-0.46600805506151766,0.18108931545949383,-0.09352917416371506,0.0449083362131455,-0.6796088818295877,-0.011149081822878647,0.7114230814299185
0.7186763986801655,0.0630291222155225,0.44808386028202046,0.04734710063998319,0.9328111294384217,0.5887037848602451,0.42569482448431034,-0.6367237026995367,0.045437602447406966,0.7222766386402862
0.7540154477890934,-0.521698280241043,0.07412953136961146,-0.17373686880369013,0.6289847004545376,0.661972946152524,0.00577538246105434,-0.6618812578297083,0.48246038342563996,0.9191604465210422
0.19160823712430317,-0.032981655354803296,0.480383775177179,0.1585825744062678,0.8709889362898126,0.34165327136725054,0.9819986884834828,-0.2586630787938584,-0.008640265516963438,0.9087612014259261
0.15722502879055994,-0.1737672124711634,0.627057532191038,0.42119443870828827,1.012460096712048,0.6513133651357093,0.10990621926357089,-1.1400184782070086,0.6473901455947413,0.6443085664005508
0.18070247333174694,-0.9404100662326231,-0.09724101526717097,-1.2545562119866256,0.9135016480556338,0.8585119241534309,1.3153844699940807,-1.956295307832046,-0.07830053390034981,0.7889047117093475
0.07592963514019037,-0.356020450706075,-0.03389649226514843,0.2695550164554248,0.4606850684753082,0.39037974858902236,0.2364409927664013,-1.2293919796562036,0.8246161546346921,0.29647039740653697
1.5241803966310783,-1.0758423234779426,-1.8993684311064718,2.879495150912431,-1.2118803679442074,-0.026893046676233854,-2.6923639430538118,0.031163710678477265,-1.163625943048552,-0.31367624431408037
-3.392445996031489,-2.3985257605052266,1.8625577286896535,17.337558137238094,-4.251804704520988,8.0971677896082,-7.387524483038217,-3.029119401711013,-4.564452905158503,3.688681412009938
-0.14135635253971815,-0.7476195446975025,0.8100477516925306,-0.12072539752457102,0.9488610450175602,0.8011311099137757,0.296067047928829,-1.8746649160390836,0.8088818393058768,0.9128281998701285
-0.09722762451170164,-1.000320840085575,-0.42833983466540215,-1.3849183789040564,-0.7406476069170189,1.9033271297902572,-2.6643897467119553,-1.3079349122804467,0.5649427515554656,-0.3758581923448044
0.38963857422047565,-0.10291262944186808,-1.741042013586101,-0.1095507485509136,0.3421018887983288,0.2613996248387217,-0.4394861335334137,-1.6421943447735177,1.0641095589361687,-0.11575702801848867
0.4542646496760897,-0.5464011038862147,0.4686954740598238,-0.05232528004652689,-0.018218763346045164,0.015325191177944167,0.1562862055464694,-1.18524375918906,0.6518867388094642,0.21604164001517148
5.343113214852726,-3.356834765925059,-6.138486330734279,-4.856406184357442,-1.038025742471442,-3.7269281319135654,0.8435045763860444,1.568842942561333,-6.705009452273009,-3.462918941297224
0.6629707043335697,0.6244302064842796,-0.026752198963309413,-2.1010297299261564,-1.2652821183372411,1.4782679279552506,-2.747371377417896,-0.27828569372995643,-0.2422099504987245,-0.2415600149425346
0.390957350849694,-0.013552571065451657,0.3211473339760459,0.2662061970412965,0.6006214378244712,0.9395617890221296,1.0093546724767588,-0.19999373038234194,0.25639160048389364,0.3227993034657426
0.4010983628800206,-0.09240993104703875,-0.015985389135165746,-0.3575002370999617,0.5348654979126369,0.7409953183532901,0.8361015995690245,0.017547387188749257,0.7796706737330634,0.6923711147503863
0.22805606352516786,-0.26684268397590416,-0.09779888247749884,-0.2424655749001799,0.050006291787168825,0.9864872674807941,0.7747985528718021,-0.9893960360142309,0.8154069529424296,0.03887000276666312
-0.6467387946260161,-0.05999322905034588,1.086153603784445,0.8206883453834299,-0.033462496152683055,0.5593541300482598,-0.397612980848432,-1.214493682681756,-0.17731572568695578,0.07083432877728262
-0.08630758186193814,-0.037360092167005324,0.8246702745580399,-0.39390846022431997,0.47104343704920015,0.8343652115524199,0.826650351013268,-0.660374112010318,0.8241218391409343,0.602832232915809
0.8486611757331559,0.27064283989003746,0.4518359928499276,-0.2164158666747285,0.2576253371180477,0.7854108918817013,0.21801492996470262,-0.6112058596530356,-0.13952607720924026,0.3134676447000438
-0.06760886936031002,-0.39690745037668507,0.4277806293274092,-0.4404585922101807,0.4631722731135977,0.9251738878627623,0.3741081529271343,-0.8628062772641717,0.11876505880953293,0.7132208703857087
0.14147817593542059,-0.6215066612542661,-0.008136291458305531,-0.7526833834348526,0.7034132549683977,0.17715447472285542,0.47949988372663394,-1.520164667662673,0.47773437364555094,0.4447914467487994
-0.24084419574621485,0.25032902870894913,0.5461026814136286,0.5806775714732932,0.6379798532305706,0.25319971990159046,0.18642989699224782,-0.5003095038326667,0.7051160812918458,0.5841511704539636
0.09780508647764692,-0.49693532683085107,-0.2530277264742984,0.7733164065680902,0.38145357285353254,0.6164745449354556,-0.9839167792580663,-2.088144403122345,-0.12585107566288428,-0.5778179887296037
0.10253899133330935,-0.7273335574946597,0.6614991816361981,-0.50476490322695,0.4057967505739872,0.47527190212050685,0.8248326802945949,-1.264759103332506,0.33975503647191885,0.8169764725075999
0.9971323226474287,0.26254965467802865,0.4619871622705534,0.41831836665362593,0.09167682262271627,0.23884316811877224,0.9911723628805423,-0.3243455974077398,0.21060755714436794,0.18242879410422294
0.1327342805973452,0.19903761831672356,0.8538343224871365,0.5682173624358232,0.36225953100106345,0.42858241199972547,0.6952037594195403,-1.0554277356800266,0.7510579189580784,0.4573494102784385
1.0117757688607454,-1.2122626832135608,-0.4069811550306938,-0.2244813096572203,-0.2744701257153618,-0.3547951034632532,-1.1841836014249147,-1.504588305204142,1.4592067981409447,0.11786052808854966
0.3771218555681464,-0.7704708988515252,0.14410248562334413,-0.05388670234200651,0.5717454522326316,0.8324166575483206,0.5886440704039281,-2.109912001920686,0.011004867108304985,0.3500169890057897
0.9716612534533882,-0.7712743364166582,-0.5476336405818623,1.6169963129513432,-0.613332179058638,0.6704436408405468,-1.077579298465804,-0.7864076035891822,0.5043851968117324,-0.4595492656026411
1.5480707958843498,-0.9995726043119318,1.8145108792871347,0.023625775904512827,-0.28334393697997484,1.57030450281805,-1.1732989492667003,-2.13009344714502,2.309093101700623,-1.646620429732754
0.2559703207571809,-0.5930382033079383,0.6586518589014483,-0.18787319593621885,0.6799092516611374,0.6333289135717689,0.23063871918821566,-1.4837412531134897,0.2929041071624787,0.946861699705643
0.3889193222249198,-0.6508588669378742,0.8102279968730735,-0.6087500659998526,0.6323331783819967,0.19747338234752865,0.11600444911078385,-1.2427943798833925,0.5869460981970531,0.8278399065329871
0.8242863379984625,0.18073782680761527,0.41742354994327263,0.39459428093946286,-0.011253618603293665,0.34237121142949395,0.22154480511146657,-0.6074440860714395,0.06675595149885495,0.7364529437107906
-0.2940279719201319,-0.5005258986303591,0.5146003191624702,-0.7761033454419756,0.3643878525021527,0.01048640873809328,0.6129332616075763,-1.4815304856784888,-0.006719509046471777,0.5078605201526069
0.6401647960895324,0.055394430814292614,0.3622843629825641,0.27626552496421236,0.7556957828899871,0.2623308923318208,0.20422749940347693,-0.2756723419396477,0.09812240444474742,0.34470022244254966
-0.14902567369307215,-0.2750306556157939,0.26854886812077233,-0.049255693202618536,0.6023374514543675,0.12776548799017534,0.3148059212603647,-0.861537654222333,0.700412855667224,1.0072883678897955
0.5044460288079649,-1.187614508955028,0.5360288155551997,-0.5592993193964165,0.16163166355927988,1.6822916629556768,-1.5295347737006708,-2.6664170216401493,4.048812089177693,-1.1729676299452092
0.2969294331330596,-0.3321922728017681,0.05391608754261993,0.4613222587942823,0.40795809107857334,0.701690094730094,0.36555528054572123,-1.248934024237532,0.40746721689593074,0.39508095475264515
-3.0204253862586565,-0.5236373856572389,5.85369623999697,-4.511098059869589,2.7074178532533333,-1.434557612307961,-7.796153745179663,0.465247820686126,0.5919124434835825,2.088957450861682
0.03164962116317832,-0.28785599315914756,0.4282101579353972,0.10382377475956592,0.3576516752250543,0.9136450667208106,0.9378923354909688,-1.0250219454345608,0.20918626133783425,0.6691963809789327
-11.1310824786355,2.418993328857357,-5.667886711007152,-1.3801879761423232,-4.554670409218795,-1.2366708356115592,2.9745152969546265,-1.3977795446622674,2.5960037827334768,-7.241193612858112
0.22349670204626643,0.09418762731404914,0.3112218337929568,0.31368611646609795,0.19154625081176788,0.26277694874581425,-0.02159890948747319,-0.6405473799965979,0.5455254752772934,0.45649169650674265
-0.24011142240218136,-0.47058011110683584,0.6036474677130794,-0.513885326599362,0.8905204168558518,0.9679498336618036,0.6376249008446627,-1.3256333470534378,0.31399828395604285,0.38217358545345137
0.004463898753012723,-0.3095779324080685,0.6113597340537528,-0.7815756941550904,0.20234335632368847,0.8138491733174826,0.17772611806244573,-1.170990341486929,0.06234786332382296,0.999371677545765
-0.03389441551640285,-0.5804405000298569,0.890076450484423,0.08250374969552819,0.8679502505426373,0.39339704399029857,0.5099404628833559,-1.506449301989019,0.558442025935718,0.8840762388000074
0.5193290559185234,0.26608953187555684,0.14068153077081821,0.49534668903748974,-0.07191529061227644,0.6620271763161215,0.5616769279062132,-0.21283303002796133,-0.03641343968249332,0.3016311799521591
0.6283681938949326,0.2990966595964331,0.3151125415265209,0.5001228982615874,0.04305897013347088,0.9627331618242903,0.5824761503368662,0.0031942970501506393,0.5643341818561247,0.7490739415206917
0.3961380410834744,-0.11672589397013598,0.3778332918578568,0.334312747573189,0.5183916224872699,0.7249534026323206,0.879553719419246,-0.8028176137870553,0.2759339959055321,1.026889675677715
-0.8176705496382118,-0.35034683873184014,0.6100062797822686,-0.758592957664404,0.46987219355702614,0.31070483394239823,0.7700600610321214,-1.2035901662841935,-0.4954844370441197,0.7392757157659581
-0.14054974918524654,-0.5513640015497712,0.7091432765892218,-0.03923125988281728,0.1983719729992629,-0.003409958420917694,0.8383678402816944,-1.4438817356899831,0.8796440725849584,0.8681190107124327
-0.09390309865453339,-0.027724341599687598,0.012908701410285536,0.5471666732515341,0.9477875001968751,1.0456670640008119,0.4998357444130873,-0.8226924302213084,0.6847992954104107,0.43099640392765637
0.8570805058751757,-0.6698493197568613,0.7180693396253494,0.14994743169628916,0.2860525180401206,0.19850033195368968,0.32908375196840234,-1.76273448139342,0.19508798999568958,0.6583162007087806
0.6989122284649428,-0.7024701728645208,0.7989630872329364,0.08919610764946928,0.5188089620040639,0.17432208652084197,0.04900945947721464,-0.9770681086367298,0.2774512980941622,0.17134182641728948
-10.001048889030834,-5.933444767211293,-5.488853255188178,-2.734684852601688,-3.361780444709779,-6.719150476274428,-5.825786077064072,26.162469515997866,-9.153635002955333,12.001072520251167
1.1171931144679719,0.29341458231315876,0.24091596301975127,0.43139163221849086,-0.3301701494153698,0.5174605644419555,-0.19851529779614513,-0.5709908669101432,0.20003727664831988,0.19241584662576028
0.41090164064597323,0.6455857182047081,-0.17727351772447575,0.5789099583691186,-0.40500021455025775,-0.08430020433868346,-0.3968471358157989,-1.0963356353218512,0.26190927799996344,0.10606892546626723
1.1502243664658198,-0.4442324136686856,0.17044965953877417,0.11774109564336431,0.3240797044769861,0.6829341367205131,-0.271866940658386,-1.0603935122896897,0.1698122157032667,0.5018087362616551
-0.32596557215239125,-0.023048610855181395,-6.845240394063442,-0.15208748074824868,1.086169557298991,-0.2322993635149712,-2.652568107856795,-1.0392750406886344,-0.10343175046297548,0.5566867128222805
1.438499623926597,-9.554084165694155,-3.8269477948822885,4.574610297564672,-14.857006816262485,23.38450966720906,-2.365401824273919,7.627294878322832,3.757474135379922,-4.870909418486799
-1.169231590271863,-1.1469777659493272,1.156068617791996,-1.5030329035999677,-0.346030089296364,-0.9206878532692259,-1.5055783662871862,-2.767046639936017,0.9825944387024497,0.2801254610755338
1.3245862623383022,1.1950644031311832,0.272948375811547,-4.043692112646883,-1.2976786394884765,-0.516810915122347,-3.974088733054556,-0.3908397537167458,1.342613845402649,0.1396831523477015
3.834832735041025,0.7876681089025103,-0.6552894038656705,0.4271596903897316,-7.01421170601929,5.61324121146067,0.31747332879897955,3.663201565882748,-9.773872301392432,-4.546988019236016
0.2566801115226211,-0.33846287269695147,0.22859959314712613,0.0663800546487826,0.6918419855706658,0.7658541613937169,0.5352669464623395,-0.5997124732786143,0.2884076335731965,0.0830076392038243
0.37697279224931113,-0.842794731873444,0.8795274808947989,-0.1939411563389329,0.8609178799732432,0.5619441888616172,0.912496255711748,-1.6165128904692163,0.6832027027128297,0.19681765534979215
-2.727507212761342,-2.6613422115223733,-0.3405892015846327,-2.6686770294238595,-1.0983796446894458,0.35188523425058443,3.2833537814700016,-4.289748914643787,-3.039800828761089,0.47033705766119477
0.8209730659665845,-0.38759911875219094,-0.11510673986611274,-0.09641095953227989,0.25002073215495857,0.6874087726446642,0.35864204261607,-1.1171572482559893,0.6149065559958432,0.20261726104923414
0.9116543728008074,-2.4178815165592176,-3.1408818992146728,-1.0982719057771637,0.19756893235763373,-1.0261093697594088,-4.493656315189397,-3.069884352958394,1.6418077766366328,1.424448280834018
0.3893203973746551,-0.5192930928839344,0.3170805360516903,0.1429631465348928,0.42176269337823935,0.6096518269257086,-0.07639654517842967,-1.1921332542428538,0.7265733087779552,0.49971695819338535
-0.0691834552103328,-0.27976652469330765,0.899868567757647,-0.06665251577313633,0.105142704762991,0.6512061260778086,0.3017226277063457,-1.064933053370862,-0.025662357898682178,0.505426882738563
-0.28511573802133877,0.11186317674174152,-0.13887191853266426,-0.4054857559519852,0.655335618548453,0.8700792294001533,-0.061693419674406384,-0.10271324223880002,0.09566528642478277,0.4152319279002576
-0.1943551029152287,-0.05379906701797169,0.03009947942211218,0.13782773421905772,0.4768328646574946,0.7185215357042103,-0.054378757505579356,-0.3728274974005631,0.3047639363060663,1.071301705396192
0.6478762104117834,-0.03192414748522253,0.2651352590309121,0.00571094289871315,0.9131671144551509,0.3790370011846115,1.0612490083182002,-0.1655570354830802,0.10526713980676068,0.7775741504157868
-0.16934457504322173,0.15522056813578416,0.619120632450655,0.46204734699600997,0.5935479040875973,0.7379426198637192,0.44303323169213404,-0.443668473757908,0.4148203385292575,0.41450046793933026
10.582429187466719,-5.373291544311842,6.98749502718481,-5.091926856033773,0.534017939530826,-8.062237525361796,-2.128568349712268,-2.8933366852395115,-4.473430039575488,0.19164698172018318
-0.2830565751680267,-0.2660959489899543,0.9706169912849739,-0.6694330982194111,0.3573217635302151,0.7538124402970373,-0.26424789597520537,-0.9222550208994907,-0.4637428860080254,0.3457887747341214
0.2485382972176411,-0.27734378800032766,0.47489097579545536,-0.559199135982178,0.08326964763533329,0.7282604801563273,0.7077576473944248,-0.6481403035266389,0.7925482048220661,0.2246332954778727
-0.9660847952647974,-1.2757253417387917,-2.31698061755386,0.8008170099571614,0.2786694552231693,-0.14830974728070445,1.6109135643960348,-1.1115738870783851,-1.5211326672500287,-2.258877611464964
0.2073875703650126,-0.10584792137163954,-0.035375838402024525,0.18432204413005474,0.009395087303156545,0.7660329299126022,0.5368568299101021,-0.7054956959200578,0.7677314387649639,0.17838868567282978
0.08320630156895677,-0.1625307315452799,0.13152249494278653,0.23197633880465524,0.39795086105604927,0.3656953238433999,0.590106482304919,-0.5264976689354889,0.34582439422543465,0.26481713900009723
0.8561271327847604,-0.451666244425123,-0.4909414235792522,0.30451258613583343,0.25303762322218526,0.12890466741967244,-0.10396426160472859,-1.3189236870485603,0.30105531726651386,0.418058410608126
0.7069479252013758,0.1915904517541984,0.566075370421022,-0.09183205607585113,0.8209259471287793,-0.09962661609423619,0.1770597745146375,-0.1532710442537925,0.21967087032388466,0.6340866852688003
0.18221812609681354,0.1256362313682992,0.12068590784422166,-0.019539337981091264,0.38192749178502183,0.9364232912591632,0.4664668371868471,-0.3594790038836085,0.46001126088927274,0.12248274265421104
0.18857172373520692,-7.708281530376969e-05,0.2799473982403668,-0.3870041050933507,0.4862221385328454,0.18188195836398804,-0.03992731876649186,-0.127273673858049,0.19330411132545816,0.9303401706996121
3.189516560140762,0.3537762196477785,-6.7522867955680645,-0.4789594521637498,12.861293341895372,4.38945067338154,17.417424579609225,-4.794622261279135,-2.249176569362902,7.9758545466840225
0.10624171231050626,-0.2929991205175015,0.3398146988026987,-0.545312904929721,0.31098468849106875,0.5150526181560237,0.8323421256397485,-1.0419746235068073,0.40929898481308297,0.12199385730137317
0.5839528226456793,-0.0697807780567077,-0.29509285460635704,-0.49904620090809376,0.14733912080275313,0.20654640376830147,1.2671222594480327,-0.16145474163870496,0.07386456557401598,0.37338689476557835
-0.20615769463447106,-0.6848401830990056,0.6051058183825808,-1.0136260835266122,0.6948838788319769,0.8291972273029216,0.3474446256615488,-1.3152144708488163,0.7363159906726925,0.6580914508075253
0.5322769087190902,-0.24408764850171724,0.5251693585580427,-0.47735373610372994,0.79002133307382,0.7786421385092476,-0.03489241790431334,-0.27966622357141663,0.014080058639597666,0.3920753484992205
0.9206387908254446,-0.17664439424359504,0.5768654416005079,0.325627153966121,0.09838040891436436,0.7429486752005955,0.08560923008119282,-0.8981664635768318,-0.024086937577376837,0.16234906107013686
-0.22387975175441205,0.08290249349435738,0.7243660008471593,0.26343078971055844,0.1336134367214764,0.2561012548273461,0.8859556269048746,-0.8281594234613567,0.5554129881874428,0.780210770028119
0.33571979922204204,0.25230762758270847,-0.11363945819269704,0.30737371548489867,0.6328184511310008,1.0113696329989152,0.14049744237913728,0.12477428462375038,-0.011815505868867966,0.5230959191945397
-0.16132302540541027,-0.06216997469569886,1.0042161568121313,-0.05642045688577923,0.23476187048866023,1.0114702993845217,0.8555677239809798,-1.0196538216504758,0.693424207217409,0.13722285732373257
0.7613286597932091,0.0040808099946740865,0.5830924658162135,-0.3179239460698579,0.21617762866569312,0.9153634308256966,0.28369750552286854,-0.2675066693520555,0.16220711212527492,0.5543097378639397
0.3941916973899738,-0.32251893222186145,0.26831693680939017,-0.1846893196644934,0.6159101888722288,0.357328449246751,1.006026962862211,-0.7416482695250174,0.23948991183163623,0.28824981432850955
-0.3126854694760521,0.1460180698607066,0.9623614797489022,0.29177290293497127,-0.044649910732276345,0.21732341746071804,0.6521607888026175,-1.1381655624310016,0.5572238088184012,0.5557741327131808
-0.20819722371285265,-1.3512987912109216,-0.8801448672399221,-1.8542643694631167,-2.603881053206645,0.525073291379327,3.5952127687435453,-2.680968740434634,2.42484043826559,-0.326222931109076
0.30081171947947666,-0.6580734324927213,0.1494969789978001,-0.292758993283591,0.5216155373148595,0.9266219635174439,0.48193419100442275,-1.0875439887088167,0.4909596777409109,0.49797104681767784
0.8299016766054286,0.12079416627791893,-0.19492662535098376,-0.03395844883606455,0.8540680795339857,0.3757153829259514,-0.1426927383111674,0.28071542310883774,0.2172802374797143,0.33107385935489514
0.31720418006472545,-0.9529605820048993,-0.6974384182079935,1.0385821417705914,-0.4973479299051153,0.09581640919050881,-0.6285498325256414,-2.2607049398108243,0.8118104021568436,-0.050123227243823155
-0.00015626675669386234,0.21211959967157804,0.321304804300229,-0.4568012405078378,0.16170273529585302,0.8192242735160832,-0.011727050520394862,-0.9406123067403099,0.2500073675054212,0.48804500482936247
-0.13267646356133983,-0.41890201042335695,0.10575658262359698,-0.12932311878644331,0.6704017632371811,0.6000818984688194,-0.027093597083744276,-0.8812771360703187,0.7001072402278099,0.9083905954900601
-0.9560584534228916,-1.2585516059244626,0.9934315764705415,-0.8865038912669573,0.38416556167093296,0.07402829656654537,2.283993851218255,-2.2268612462664654,-0.5197016003515452,-0.5383217931747323
0.5644000071362482,0.18441058804477634,-0.18147654185102416,0.5675910095880989,0.7478881094539095,-0.03678264082837772,1.0372570958348646,-0.41824898165746816,0.6117747694070996,0.04070492144425784
-0.13473186792494302,-0.22557826248491475,0.20997553245213701,-0.11359899620324941,0.7763617208718949,0.18905704344088192,0.9242138585766149,-0.9349645445249767,0.0015095288537690234,0.2817897772005557
-0.14985515193952564,0.26688366464830554,0.15607690476500619,-0.07535382581998867,-0.004058563028026041,0.8357664052473043,0.03931697917902756,-0.08478910776226253,0.8423574480878696,0.8015935256451526
0.09636504292994355,-0.48495891280876197,0.24269046817868206,-0.398131535415687,0.11861442367593789,0.9731581080925883,0.007785910867600726,-1.5716773687537442,0.43811963350365424,0.5477110225760214
0.2656036607941372,0.05441117656177765,0.7602337977382435,-0.49665361467235497,1.065977273167058,0.7326975918295948,0.6641725616459797,-0.22228681818392496,0.42285077819945865,0.858119551502799
-2.3150992002040085,-0.9516946431540662,1.5322629440997375,-0.5376717097939034,-1.2825258880365693,-2.5043847335410767,-3.331531243944897,-2.7271356253050114,1.8926081700050712,1.450076085976627
-0.0941927137799401,-0.6121890643594422,0.48725599043276074,-0.3825883446192179,0.5335738347353796,0.9253474636102926,0.5983443265478359,-1.67660090131512,0.12193636503768224,1.0357335167511639
-0.7998225225400514,1.7823684927811807,-0.5879160398356426,-5.082388335176637,-9.381710128754603,20.368935510727994,0.17365872642300786,-1.0466068897702536,-7.405504498374415,0.9416350467297121
-0.4479659426656926,-0.31439202629744134,0.12011965043724104,0.013773507104173549,0.8372947340865735,0.2845195971698638,-0.06675771780806089,-1.4847909965911896,-0.19632370997223356,0.2369395239383714
0.3083499133063683,-0.32036751275142916,0.005783655166322932,-0.0945264821760179,0.38775069776562954,0.13702441219927367,0.3901155703227461,-0.7030375362945477,0.48070571252890437,0.2010272324300865
0.707905221639134,-0.44810663727636885,0.34462136373943114,-0.6200814004035179,1.0235408689068424,0.10884198226142622,1.1226362480430139,-0.5435267459243687,-0.1291379484606795,0.22196136197079003
-0.6953687768347271,-0.2193109332171563,-0.08801434789478461,-0.8707864747627748,1.3925177077154183,0.6725498338143683,0.7076886070917956,-0.7683634310321097,-0.4027764915082866,0.5383210164548107
0.22419753809887316,-0.5663750738923109,0.21627538417055409,-0.021840073146103336,0.5884370615747154,0.6326820995472989,0.6702271544468822,-1.2549628880096606,0.2052656955591057,0.4112611752471634
-1.2243617981089263,1.3633387066892122,-1.2975685381872561,-0.3550263167000216,1.3448662162862906,-0.062442144905260774,-1.7942521765623394,-0.6735816921879227,0.6493900356374466,0.5198956653529763
-0.15365318033460765,0.19902233693630308,0.4701307586277384,0.5226798906687682,0.3739268463656465,0.6159864372321051,0.25143142453789424,-0.24176567805585722,0.6418965450705877,0.3253256359170226
1.6025849784530077,-0.7178015609353154,-3.213572639943791,0.7142264079226046,-0.9510444306390606,4.124900996497312,0.37074180524190464,0.8194678016150778,-2.4466972714715576,-1.1502008560521788
0.3046082522530698,-0.2299029519597121,0.12159028361872376,0.05153914180052915,0.5155069925798925,0.9829834227363662,0.638362651910154,-1.1405837209956717,0.5284824835131494,0.2993782658738346
0.6224285227747052,-0.19506612630444548,0.7424781612662775,-0.04259692602034217,-0.03625804582914702,0.4084248029230007,0.9420099444088404,-0.4894478161471853,0.77510781548826,0.28001256065052765
0.3267422806058181,0.18243906570985624,0.5397951998685709,0.4418994427705682,0.17365268750573645,0.9101138243245906,0.29074598183647055,-0.43699254629717427,0.3239593842370131,0.16949381617845527
0.015284920028273793,0.10799745854213412,0.32997118861539526,0.1655987375188899,0.9425744264371584,0.17894648948233674,-0.10450086177579564,0.04807640174337472,0.6782952612424404,0.8687043848090409
0.4019301859003627,-0.4460980963476672,0.38164560511809537,0.13637170539592128,0.1703969124425009,0.57809563222056,0.2992130510655018,-1.1784513240602599,0.5792666217590311,0.8175850670949452
0.3259338615006278,-0.17804281315950382,0.6115761004815852,-0.624525213685868,0.13798161290566366,0.6118580643295349,0.7473796836256339,-0.7771977514951668,0.6800752578581511,0.9463630656470308
0.3324824424452312,0.02316273355847646,0.8461058179797041,0.014935790174082482,0.24957008583353182,0.9515621427736973,0.45553124684395113,-0.6320876253321329,0.8529848169053559,0.46370504567876436
-0.7555800231458619,1.5795588358233985,-1.104830318900387,-0.1398136057987618,1.0190287816789336,-0.031079448598649098,-0.3524604513974097,-0.6140680945261149,0.11333919920082526,0.22975268692862993
0.589913346215595,-0.29988625350222037,0.594878507212826,-0.47727600489169025,0.4594738167730017,0.8837599017201098,0.6636149155730828,-0.5729815585771126,0.4019556435260865,0.3949411632713614
-0.2651698809350603,0.17781555816442404,-0.17386546748624757,-0.26437688432743384,-0.02583049006357012,0.29738902642125853,0.2497533251345515,-0.5784641634758845,0.6674013308213205,0.3097472562186881
0.630415710584282,0.15922545795814383,-0.013953323324987332,3.901625438766024,-1.1998325489685457,0.8366470797249729,-2.2226049916926467,0.012486838672376863,-1.66390177379824,-1.0498929431092543
-0.5275192973500173,-0.773895654992206,-0.08777066579298687,0.2880490331767319,1.2934734164226618,0.803870124827849,0.13004757316017868,-2.238084238813805,0.11631177128081541,0.02832729079801343
0.4614176454641652,-0.5742337802483997,0.6603631260241347,-0.558727452163386,0.34854141198117644,0.028274198239901,0.026776183889807164,-0.9935078529158415,0.221182564295404,0.9494939892594745
-0.026922104487060436,-0.044463036480837,0.635706604314112,0.34625387589869433,0.8493946818876669,0.7272916908341525,0.9146509755502725,-0.8610016658376455,0.6622350574880606,0.6806994205915561
5.574917794219754,-0.5037234177230973,-0.9870142807539652,2.54049438035747,-2.2652220611147973,6.035238606508024,0.14772138586146374,-1.081921260246589,7.3972795368641915,-0.44909396443410177
-7.099364648131175,-3.359813300497387,-3.2720733260738957,-7.8476431911406355,-3.3369922006404646,-1.1335167911642188,6.977938841757891,-0.7049328216944729,2.0188415953650694,-6.054783729682685
0.09811486246944916,0.03552986527685842,0.6386449396532404,-0.008756014431161264,0.36399948972528356,0.8331995723913513,0.7981906776409349,-0.5334086237435969,0.17945072914491209,0.6429811119060456
-0.028360184058423082,-0.39664389141658163,-0.05453231239510855,-0.19133320155931666,0.04942823060483488,0.21137965498100653,0.5479209787734708,-1.8540648891595943,0.3022917400847062,0.23445579838406905
0.5870618451074586,-0.6225561489085188,0.7917485357578037,-0.2862486452739667,0.9861576293975521,0.02767458503893216,0.6380236725866456,-0.9400944402449599,0.48888187083246815,0.28657339290520306
-0.14508292373975934,-0.5585453553405626,0.7381007543995084,-0.10568503909235588,0.5540880344515148,0.8562037498476367,0.7954335853934481,-1.3769224115779783,-0.07810325793589805,0.21857744261842585
0.04649553772943687,-0.4175494055063388,0.2899109089869688,0.7629368723087473,-0.7111178267669817,0.7416329744597883,-0.9321611237065798,-1.5871080662359254,0.8660432925921268,-0.7414513879257133
1.0070242882235945,-0.1318993047566391,0.10093554380648052,-0.4008815322948295,0.1689005319734224,0.8849625171105191,1.1050873589131693,0.898180610380591,-0.5384269079787625,-0.9624670347783135
0.3801418672920653,-0.17361393885391138,0.13073724487432223,-0.33096906740746085,0.9813210823246635,0.678670077430837,0.4226263695828452,-0.957889626063675,0.0720025848676282,0.5511860115354773
0.01764681539718736,-0.514317848240086,-0.4678338494639993,-0.4990293707127182,0.03387490665155596,-0.1221950759178142,0.24557905809423242,-1.330049247215113,-0.05847419438843984,0.32359461442055604
0.5591395288340048,-0.11208112248161242,0.411636468475829,-0.47934832502252517,0.12453672336766605,0.9115902810426086,-0.2220190236445638,-0.811259388160165,-0.1796824527280706,0.6788674310741025
0.7337534800681493,0.11243634420854162,0.09103000150083519,0.8203681427571529,0.46740673708468755,0.8767454530827499,0.7670586765275554,-0.7206320491296798,0.6370079691260278,-0.130904611112965
-0.17078334786429053,1.0242649612459787,-1.2941878015823534,0.9335004416469346,0.7503639553740656,-0.06838424049689638,-0.6743566143372992,-0.46374306900997037,0.3800464692623784,-0.3035574397085608
0.15657949284002573,0.2002259594028392,-0.021516204684947342,0.40906135702815016,0.3644086915734399,0.36993752783528544,0.18827294520916824,0.16599718546989298,0.10519212154377004,0.76480130381293
0.5606030225015698,-0.43605155964556624,0.7890140391736931,-0.6328072754856111,0.6125449522786707,0.5155067455898188,0.08400566540774727,-0.7986419591555222,0.08399662373273076,0.9497149245104669
-0.31714155146437584,0.14829076074373002,-1.2101100361750818,-0.2873798556564695,0.1121632820808528,-0.10448224886686215,-0.330288702422485,-1.8984983685467989,-0.03325855646608711,-0.32645981447170985
0.09956381406237907,-0.5558658481171381,0.34952115986494087,-0.027580166523280162,0.47484151679815073,0.0009174269578995205,0.9535473785635626,-1.5206110159020747,0.4261076606878624,1.073527995510365
0.17582790704683632,-0.21932702904395207,-0.09514057636761504,0.22497109116151637,0.6002760495776608,0.9769729520028364,0.347417340558737,-0.8365760397846989,0.02632942905350251,0.18263649614561656
0.6785507728896528,-0.32567751155237107,0.01326402326720606,-0.20919226175567693,0.3328915049085314,0.29325387302530376,0.7330561238975463,-0.8424272138737366,0.21094596806387728,0.4693092901094284
-0.13213711385207055,-0.5994606965601901,0.2732611338543741,-0.04016486481059034,0.30542572705297777,0.9278703228864802,0.7000407496138515,-1.3983433439234345,0.06235141212094087,0.5553709789972892
-0.10478323417479751,-0.2081976193370384,0.5254127462311942,-0.014392193325806754,0.020511854877122516,0.3178382537532705,0.6568338603973077,-1.2535975565224753,0.19592608130812594,0.6438582227037665
0.7423071765854725,-0.3891242096229635,0.8091430660499116,-0.28895669217303427,0.5512630353411339,0.3719830306292931,0.11296512779473535,-0.6321782806689946,0.7587619398417905,0.4403092721938275
0.5474110725951465,-0.013633003447600617,0.4834012612766633,0.47846844614981915,0.20920066054991976,0.2024406340629994,0.598443317244169,-0.530997241368813,0.3910099469363985,0.5742991404052243
0.47249463361100463,-0.4025265992084425,0.8808871755734982,0.3024425101726784,0.4305127354734383,0.8489187712609708,0.27211375270134674,-1.20991040084918,0.420275488514074,0.958137356651734
0.6688665493120018,0.13971792644826034,-0.3280783159259041,0.7189113837900448,-0.24212072227778855,0.09548590164985252,-0.13742226191294118,-0.32081983492722693,0.235608301948299,0.8394056619421686
-0.177912787559287,-0.5463212046361123,0.4747699892144163,-0.27347730186876357,0.030897016256526945,0.4313268191050675,0.32761448363895923,-2.25873870754271,0.5393435162914147,0.34434628466064365
-0.06004105749799562,0.050926637834511825,0.26184293400452885,-0.05606009087546285,0.3695577745966728,0.2797262639615764,0.7780491458161135,-0.2784467484393998,0.018432294156501865,0.8699315696755815
0.36908134401047826,-0.0004999908062379871,0.7228185001186963,0.12372306011869913,1.0237988829963476,0.02433821562407503,0.5845724018138794,-0.26915699615341,0.6777173102009969,0.27882385822705485
-0.31950076765316193,-0.3102138380663069,-0.17812147585651533,-0.7462827457823031,0.38851536082977595,0.17076544158942933,0.5028001228562131,-0.9365914965257642,0.12032443739974694,1.1461709552526884
0.28254358254581835,-0.758362060920331,0.8605505288800857,-0.37584686462271766,0.8128873231359215,0.4649305620038819,0.37942498140385095,-1.2050915339520052,0.26998514330871276,0.9929895650953872
-0.11278560793494015,-0.06103997384461261,0.4838215036407503,-0.6107469094281336,-0.02551113877268716,0.5888977290679479,-0.2770018868237996,-1.7216404724264984,0.486127652467836,-0.15281660801002048
-0.11360012485838367,-0.3841058070892331,0.4745803665716669,-0.1005078553730169,0.6965175678248647,0.013864796089103794,0.8539107802965957,-0.9169823338947951,0.33955380367526755,0.8953186513262202
0.44129823231206905,-0.4520954220916481,0.5303034034494476,-0.209207466326235,0.006581856511765266,0.6086439604840247,0.7851723766973673,-0.9185766401280464,0.312205274269297,0.6087756047304679
-0.16569898169221067,0.21855732609595674,0.953816143096315,0.3711694085446805,0.5120014282388519,0.5766828059720878,0.9023062260098863,-0.4215274150389551,0.04561475029542777,0.3556165352949548
0.18231819705234675,-0.4201712223677019,-0.36808815486856183,2.039095042396674,-0.6405243364051932,1.1861633420809035,-1.0599607182690285,-1.196923539604665,0.10570453923711219,0.03035296078768117
-0.18626684946291638,-0.7124941442916274,-0.20332958500179388,-0.1929130696151737,1.0790686468465194,0.07989827093641999,0.3837448205288551,-1.7858262751230178,-0.10959236858501116,1.0683476144739317
-0.22799678512418406,0.24005503691044616,0.17968191752510246,0.5193532714443416,-0.04879701765842797,0.13282490796367524,0.8019221911535285,-0.3128028152643233,0.11213497307495707,0.0983040419567204
0.4505335595385828,0.17527472468563884,0.5705553787750837,0.6853328284616896,0.8775566099002763,0.25879042923441153,0.2287655684837757,-0.018939508364867658,0.5590484085391745,0.15246765000386506
0.6118974569044701,-0.02994096324792137,0.8983927839053704,-0.4651321315385593,0.16987121586348,0.8776681420766085,1.0560129442263486,-0.3150208416094607,0.6884750944377819,0.9354728263937995
-0.4998558945678535,0.39529510295540526,-0.7132639314600875,0.3803902628331564,-0.06476691894797518,0.25778247214770655,-0.9069501010346894,-1.7198594977943706,0.5229883296516075,-0.8940949402425916
-1.0233347287137997,-3.0388043514974954,-1.4768228622266544,-3.617111915394005,1.2177002518971782,-1.4587724799822752,-2.5268780887207694,-0.7723067798255411,3.93978393065988,-1.8906288466764156
-4.742968281917383,-0.7865302498281718,-6.392136880262001,-2.970633785891851,12.765947280928794,-1.8363979124808738,-3.866513583907343,-4.045194790135759,4.772447809659969,12.313292193787227
1.7558409634983492,-1.3803076880480036,-2.182980950458677,-0.26810600673961943,0.227423490572994,0.977243088364525,-3.1362125611777736,-0.5618458444162922,2.15091498327776,0.15634057135011264
0.6390499723951861,-0.6371067469587663,0.7890570322610642,-0.8347862433142264,0.15823559346373,-0.026192041157884607,0.8864444939940858,-0.9981263934427694,0.0016612344115764898,0.9884602996415723
0.5392221957504101,-0.0846669161722154,0.5070384582740648,0.02582724909908255,0.7785939930483421,0.20637081700040938,0.3495767245877482,0.03605253585488267,0.46561518467463764,1.0076308961356009
0.03553907853745131,-0.5483116387909891,0.6082277386221037,-0.4639822719136763,0.32136178876593713,0.9192271717243413,0.6117443092055377,-1.554311441449171,0.7509987679357462,0.4699201567517397
0.31336896001312403,-0.1652647353933101,0.8975479495298752,0.14668832573494156,0.5536759967829205,0.706126928703131,0.7047867242298839,-1.18216755904875,0.7986172296992298,0.6719835306585231
0.3752339959826099,-0.6267329529095917,0.2794572844377148,-0.5441269200875689,0.8735516126871193,0.30849414097610084,0.7692066664253719,-1.199281494720024,0.7553218420356508,0.7584787168053126
0.3128105561588166,-0.45721728476860213,0.5607549608724236,-0.1413771823084144,0.9153691456368227,0.9482534135901456,0.02435797650716657,-1.012556141052401,0.5886283616891642,0.24153911161508945
1.0178879080078644,0.6007886837245875,0.3238567327054255,0.10462523664633512,0.12091246761060236,0.41189075204359527,0.25068476494099157,-0.6297430195017388,-0.27661796525325033,0.12057535704829103
-0.13011518996169266,-0.38724125812029425,0.21603211888048415,0.1559940608849186,0.16153364545099855,0.6003582851084263,0.5872404755040841,-1.2647693937691982,0.36938602534524156,0.4569461374706581
0.04441936481602575,-0.041918857938614947,0.3586167146081044,-0.14339654975047023,0.3317117648295386,0.07151831362406122,0.20346828149228313,-0.47406371627026045,0.8007036367254925,0.10489880688845946
0.29261191996946284,0.2038244049562451,0.3718501895439829,0.552471600691813,0.7056507812607654,0.3244640246179928,0.9726262537515823,0.022997200202892365,0.8747122753210149,0.6512528833402176
0.4769347777231483,-0.7472728286317493,0.8895438936947795,-0.5598692126463457,0.6143775649893148,0.2993076095153975,0.03660589230609143,-1.0763868786632684,0.5424490619528912,0.19591910431987017
0.5712217745742656,-0.5821203909850612,-0.04451538744224105,-0.11019793755479815,0.7750746899768663,0.25596284327538615,0.5360014941783641,-0.7260948449516736,0.6270066192319379,0.589795108684222
-0.07569171956102365,0.17675598559676606,0.7294380720953207,0.0274149508066198,0.24535546068589612,0.3267905085253019,0.7932005775287372,-0.2558389202939052,-0.09968805820040771,0.10049683784427191
0.2705052390845785,-0.46873467986431366,0.770429618107138,-0.662258707371082,0.3235419718452021,0.16802504426056447,0.5147574424547556,-1.084299733819646,0.33176412677570083,0.30429225272364524
-0.09234461359606225,0.22448228779554308,0.1775464381660204,0.5820243562313335,0.9722143430454385,0.46311600414928694,0.6345413070096146,-0.5674021411834583,-0.17518826106983384,0.6936221632379933
-0.21470403864214227,-0.5420330498698136,-0.010173179253821876,-0.05920797896366772,1.006360148677651,0.3259801163096209,0.3659777038428279,-1.4789541858300446,0.41370548778143307,0.2057267867475465
-0.11868514967860337,-0.6388242130696803,0.2757717941237188,-0.9538753232316052,0.43902141606569095,0.8037648257979798,0.7112540511691332,-2.0504839993939212,0.7860044619016737,0.1814311713917173
-0.09695635308666395,0.20613087879512879,0.26549322970329386,0.2858078829280538,0.055685050852738616,0.0773714867439075,0.9154974738381376,-0.659791091620815,0.32191473204897497,0.8446404895319828
0.44731629454331195,-0.6490642251040353,0.787578051648136,-0.8334605780453812,-0.01564987682151575,0.8103850474405195,0.2186252600216558,-1.0710591517088957,0.4954439532408182,0.3401795366168404
0.5204476306027586,-0.2039886235611121,0.7411727736173813,0.019207759740109444,0.8807624068650746,0.7187976489092959,1.0973739364231951,-0.494177340685163,0.023010238210354823,0.2436150810646139
-0.11552196606183289,0.3656274106360097,0.4919532933598013,-0.10220703909443117,0.2501624626161908,0.3940506380193541,0.6744514989338719,-0.2916634589552779,0.702986621253236,0.6063109897413628
-0.3581785985668745,-0.030187532009607745,0.6817505807735308,0.48128749300392165,0.08206036501916494,0.6074434883053684,-0.3706048314274077,-1.5608600828761243,0.6051611180647598,0.4165692801529879
1.389186232024359,2.667183836285533,7.662535404276979,10.96395747793463,-3.215249206716061,1.9290566458374105,-0.007649935761656198,1.8456773080496658,10.3140701534863,-0.2694193931014205
-1.6771074820990743,3.7386997922965617,-3.8590784527835997,-22.827550140735035,-0.41419454546664514,1.534136839989351,-8.913050688924628,2.2655243654393,2.6438650664634107,2.052886072739
0.1263964164657256,0.05375883802909758,0.6422286343701314,-0.21017897785173395,0.35713120400859266,0.19875151910581554,1.0132013860076419,-0.443958715265446,0.42559888111607597,0.525264892760598
0.019687652511624413,-0.28594463433827855,0.6307220224318594,-0.1463533336935839,1.0217023908675025,0.14766820423858731,0.4612639724627152,-0.8325397001869692,0.5982100264956945,1.0661353847446997
-0.010400262134130877,0.11658960695459877,0.3904252793252284,0.4080037143083184,0.46905910584299104,0.012225559656987732,1.0388681801884858,-0.38928134439780504,0.32030833211449466,0.42875271679545046
0.4397781215597097,0.22882524741681667,0.4040488247514305,0.25047194309581045,0.7379155063607721,0.8059588333600369,0.031241280412308885,0.3184189750172179,0.1558320880167739,0.804891017264031
-1.0195613632414762,-1.5285795950635457,-0.45732276989240866,-1.7392892576896248,1.0941021160584596,-0.42361365154156133,0.9209595386094825,-2.7308076822478196,-0.17997144073637267,0.6544689244928109
-0.22243952997233565,0.08713249312034595,0.46626545525789037,0.5263858467106948,0.3041477005921736,1.0216541361054274,0.7545956609948294,-1.1053555017704961,0.7657232883721515,0.5513680056487991
-0.01815048939793805,-0.6345189838494981,0.4207448117561595,-0.027127372601529337,0.5346568943334618,0.9667179951125192,0.12890495395932167,-1.2814918351487643,0.24856776112962595,1.0561987078346422
-0.11539692079437527,-1.076409271042381,-1.264345848681577,-0.7878071894374612,0.8040971724287619,-0.4784667741771614,1.296743350365801,-1.6540161524793207,-0.031649266586141825,0.5585810572101318
0.3390163666485088,-0.49269760871768487,-0.08108661024451008,-0.4750875619824792,0.15342364468382175,0.3982081422929276,0.0014831377987634764,-0.7337318093881438,0.161948732352104,1.0492857196904732
-0.17538174366676634,0.3218398496014507,-0.0626293810075932,0.35671359817395537,-0.046361170967781015,0.7521643162556431,0.17857100944272677,-0.6040333268981198,0.25065488092784804,0.5024088524978337
0.3532574342459659,0.04786216740562911,-0.11942773914535923,-0.31343454434704343,0.2766931889159189,0.2950698470467297,0.9854003740359359,-0.3331504421838954,0.0047876447576621845,0.7289334238159626
-6.523284205111478,0.2551901280176736,17.44756431358764,-3.5130059135110314,-9.607922413256478,-3.903123135766281,4.670280128203742,9.221262296620026,-3.7198190371732744,-12.157047290645854
-0.20508457036920713,-0.872758783036156,-0.9539904329961267,-0.57333681057254,-1.2929864851306136,-1.641253878584033,-2.4153807554633238,-0.238441794866082,3.1760078562830296,-0.26961279465136767
0.4064584779726065,0.5197686872709901,0.48457039071359065,-0.1290937395918093,1.1638014549260116,0.6801576387319689,0.34448479675938426,-0.7176174197479659,0.5702264475241936,0.07227920649709663
-1.796387398080998,-0.9180772823430831,0.4417331776998411,1.1394474983401475,1.4056695051839476,-1.280769255417648,-2.068436512495041,-2.1836349819437504,-0.6718753107230394,1.507139054662935
-0.1929025708345486,-0.4761735139688633,0.16421666451975708,-0.6310758428089901,0.520022226222951,0.87074942995045,0.5484146948573556,-1.2824026515918419,0.6373917730734833,0.7149675433305995
-1.919068928641914,-0.6644987207213117,-2.293408886309099,-0.49256161381764996,-0.9691138429883096,0.5216053748692956,3.8818998271173935,-0.8447838429468473,-0.5826534118754119,-2.6522536933727916
0.5215216454005543,-0.42056408744808205,0.34326878271433003,0.15552006068913754,0.49812930050183574,0.44316988912356714,0.5445127014419225,-0.993109783785675,-0.03981123283558997,0.9653425649172649
-0.2561195265762982,-0.06824130438884936,0.9437019983176511,-0.06765862039660836,0.8055949908664796,0.958363165454675,0.37854851357346636,-1.0624907064389042,0.5254103393089209,0.7249252027157215
-1.977214368219919,-4.04593784010574,9.012552887821688,-0.9967444348797143,0.5896995182324045,1.1940644942975045,-0.18822468658880914,-0.8019433563711974,-9.172733507674474,-9.07750777543126
0.6881096113055796,0.19614126460876324,-0.06019244072384041,0.5688446107189744,-0.02425660076191393,0.9756432592886516,0.47310235607460566,-0.47034909692871707,0.6672984842838875,0.7334697144880872
-0.4913888058636171,-0.49964229384277314,0.29621678000269186,-0.769038612663041,0.92638391073483,0.33915079613454147,-0.3341746608012844,-1.6797964238109402,0.5788466658652482,-0.04934599240620414
0.44096352595670657,-0.49106742561355066,0.4222818647573953,-0.6768567505534105,0.9710598937276114,0.884796942703458,0.6711988629496769,-0.6612420541844117,0.012883153667275514,0.5491608797239435
0.243550040376627,-0.2866839466094922,0.16391286977040803,0.35432862329829606,0.46173708685786696,0.09535839268050526,0.1481904330414927,-0.6115211795990203,0.1966876637070685,0.442413588901343
0.7236427767695351,-0.06147796726747544,0.6215564241247028,-0.25332513723205197,0.31536653447779334,0.4794727765475317,0.8394810678596154,-0.713954989007374,0.5803107901201248,0.8532926687810984
0.5164789980891761,0.16479857917128934,0.558333976589108,-0.2425033018219534,0.4159306945215164,0.7713091054143185,0.6793907707351071,0.1636945357135907,0.8074865823791397,0.75694280835544
0.5104559249640035,-0.5607250164616864,-1.113771002293355,-0.5841961912048274,0.8116589350788145,1.707387796461281,0.8042173996215446,-1.3590323707734167,0.5920260401666051,-0.1432094924477566
0.4400786221445455,0.11941511697841697,-0.1684507643564546,0.6718689525225446,0.9881727145238679,0.3560944327872726,0.3345595064847902,-0.6215420430908517,-0.17785809448846204,0.7638323684114783
0.46625105068441086,-0.7079751719042355,0.5778565597744443,-0.269707972308908,0.29233739841756917,0.215079199177439,-0.04032440048828769,-1.8982109041941109,0.6110591202959749,0.5288757971905529
-2.16109630585513,-1.287077304783265,-2.75345547707623,-3.7365288654094444,-1.5988025798474859,-1.1844050143264264,3.9074344546254354,-1.7302643527450683,-1.830432548905402,1.0629560706663876
0.2924244876575722,-0.3869869601007731,0.20997818900439683,0.055504286620730314,0.2582709215649972,0.1104206651624797,0.5332656109166378,-1.1907860916189639,0.41850659565513737,0.5336572114124983
0.6618994899642172,0.13855114215595002,0.07767907639816464,0.43383414519160796,0.32949302324074586,0.4236928009249675,0.7968024661551494,-0.33211640797181025,0.7074873427335427,0.547395743762045
0.5762571896939713,-0.18831442986877553,0.5221050514514008,0.3660100676229409,0.14625638889808798,0.8889155859695125,0.3434815035056812,-0.4681620308622208,-0.08389121336412883,0.5862337649899011
0.7873489542695282,-0.22585663621096363,0.66588958043608,0.580172134892297,-0.3319303749440031,0.6772413544127616,0.8486733525352068,-1.3466510832494916,-0.5152715825119053,0.32132244155136946
0.9710644074307083,0.14068958346163435,0.17330712864482134,0.39520691127083313,0.857325030242524,0.9491894224885273,0.3778130222320841,-0.6834743516199173,0.4360000830358311,0.20336107047404717
0.2463292584809923,0.011207058582304747,-0.13752926285082517,0.06551749587709674,0.37046328465325346,0.4200985838375516,0.34836183573267626,-0.2204931480113029,-0.005000662273850821,0.49338935535857953
-0.20280173208607777,-0.06485535603517877,0.8249186490193017,0.08057320963484747,0.24894432998085758,0.7329772184490954,0.31246542485424944,-1.3721326175791821,0.8183304431009222,0.8538498167676979
0.6526409042160051,0.04503702517277811,1.1581738724638362,0.022285156225366278,0.2788855155450846,0.05611714867543854,0.861291176258315,-0.34832442279695713,-0.3717713554010986,0.8698454303771108
0.28720100821829986,0.24333607846542613,0.06888092715439409,0.13527638330262262,0.14479113344549924,0.48752927986189587,0.8039874121907301,-0.5968096084974727,-0.11325044480756036,0.1348975914838919
-0.04135531128272392,-0.34276931089459967,0.8732470179385975,-0.06241942897260514,0.5350765713952452,0.09159639911106122,0.04410483352776681,-0.7643793286956387,0.25240084010254393,0.1727936738435259
-0.30624137875486795,0.3574317377814563,0.4331796125162742,0.559720013545016,0.9032919486127056,0.3839132487969377,-0.023156442950236913,-0.3158016661231413,0.34292374005230125,0.29410318966358584
-0.8418021028321186,-0.3381971270574162,-5.112426551832225,-0.605258572603011,1.6201043275966827,0.24187024712584573,-0.5895247748824322,-1.5886358258604016,0.23935908627296354,0.12469478742692852
-0.07208951313601948,-0.08303823179798085,0.06813126843576697,-0.342287274238738,0.5562679206426505,0.7302333891801298,-0.10409170359885189,-0.3694895817757134,0.3144850275887797,1.0161112792897322
0.5355238183343328,-0.5591682860989579,0.3698795237122607,-0.5394718333644682,-0.027050627238357924,0.6156819479670824,0.7639295000955296,-1.1496495706253669,0.2150927728060642,0.8320251157804067
-0.19957013207739877,-0.46602732441993394,0.587732241241542,-0.04600193502806882,0.6086755506350646,0.277002764357058,-0.023484107087582248,-1.0621692220565944,-0.015808682225981256,0.7657026200047331
-6.177661666965034,-3.552994397710919,-0.9713194848364535,-8.74284269739834,19.8895091102911,-5.1649542522341,-0.18609132074769952,5.67560554697694,-5.425454579662847,-2.7009495329940365
-0.9194359356233816,-3.4717627646488114,-4.370903381949326,-0.3054576244862746,-4.409192580748124,-0.6648335681173135,6.806355643776038,-3.0883365785471155,1.3831408682717254,-1.9732897099648519
-0.002829711529487321,0.18074964019980994,-0.035529245241415895,-0.04706640739766087,0.8346534523802757,0.5330452539915886,0.7624414606106468,0.22659973231784905,0.6473507672105842,0.3646805571781408
0.5232344344482017,-0.7125420005818381,0.01710554008741417,-0.9572334805389611,-0.08105748563439685,1.0100656758606956,1.3253360596107657,-1.8122085004077262,0.3113356114125983,0.14539527433349822
0.7478300355319681,-0.48211030037439784,0.18752192182517968,0.3749024577362157,0.6934355783794597,0.6205775125308691,-0.15601871312718826,-1.2976846029465163,0.1216146263196137,0.025886871162256922
2.0436400270838173,-0.08295076417436632,1.9939294168387414,-2.1005802451600695,-3.84490191464773,6.442231103874061,-2.1145681765953137,-2.3146099417902732,10.862282604294489,-0.0340017608484623
0.5776509478885581,-0.5847497907880348,0.8353816690158152,0.10762284527767045,0.7625665238576103,0.6081763688394576,0.8321363789433291,-1.9680252847146273,0.0786871315016179,0.196676539156198
0.06811165976853947,0.07361147571730407,0.6415574945928926,-0.12316746392088952,0.20269447495017934,0.5972346935559356,0.030669330759027343,-0.7286118528152375,0.6552203454644365,0.5650358148397975
-0.8861647798546362,-4.0616499774395125,6.215477819234983,-0.0606872222243325,-1.4515656926664209,-1.1720556477908517,-2.967695231795432,-4.935051910220547,-3.0222070287583898,0.9006801831468482
-4.415477162958604,-3.3950213176617594,-0.23692454711838018,-0.3382441140824267,-1.8638337534402378,-1.3868831343299066,-1.2670263392543077,-6.269928845699377,-4.560234122037689,2.9854576856512884
0.5132784518090592,-0.6162963315904827,0.5085729935340075,-0.13121129114126767,0.7088279402480521,0.3495835812367847,0.8563874073928688,-1.1782169108918483,0.2752178681750561,0.26836852064938105
0.35616428305490205,-0.45586076022165606,0.22589952912805697,-0.3377335659983585,0.19535691104990305,0.322136423035498,0.8733281225611723,-1.384045378511827,0.23890024574563687,0.5594597651580285
-0.580173130716074,-0.801106369200828,-0.9413545725657563,-1.3111364050760437,0.8741056012582685,0.21283163944607067,0.27553107439734015,-1.4455168404950791,-0.17766788700180408,1.3714338711884415
